//Numpy array shape [3, 64]
//Min -1.000000000000
//Max 0.875000000000
//Number of zeros 21

#ifndef W12_H_
#define W12_H_

#ifndef __SYNTHESIS__
weight12_t w12[192];
#else
weight12_t w12[192] = {-1.000, -0.125, 0.000, 0.875, 0.375, 0.125, -0.500, -0.375, -0.625, 0.875, -0.250, -0.875, 0.875, 0.250, 0.000, 0.875, 0.375, 0.250, 0.875, 0.500, -1.000, 0.750, 0.625, 0.000, 0.125, -0.875, -1.000, -1.000, -0.375, -0.250, -1.000, 0.000, 0.000, -1.000, -0.500, 0.250, -1.000, -0.125, 0.125, -0.875, -0.375, -0.625, -1.000, 0.500, -0.375, 0.875, 0.250, 0.125, -1.000, -0.250, 0.000, -1.000, 0.500, 0.750, 0.750, 0.750, 0.125, -1.000, -0.250, -0.125, 0.750, 0.500, 0.500, 0.875, 0.000, 0.375, -0.875, -0.125, 0.125, 0.750, 0.500, 0.000, 0.875, 0.250, -0.250, -1.000, 0.000, 0.125, 0.875, 0.125, 0.125, -0.250, 0.000, -0.625, 0.875, 0.250, 0.000, 0.875, 0.125, -0.125, -1.000, -0.250, -0.625, -0.875, 0.000, -0.250, 0.625, 0.625, -0.125, -1.000, -0.250, -0.625, -0.875, 0.375, 0.000, -1.000, -0.250, 0.000, -1.000, -0.375, 0.125, -1.000, -0.250, 0.000, 0.500, 0.375, -0.750, 0.250, -0.250, 0.875, -1.000, 0.875, -0.250, 0.750, 0.750, -0.750, 0.875, -0.125, 0.750, -0.375, -0.125, 0.125, -0.875, -0.500, -0.875, 0.000, 0.125, -1.000, 0.875, 0.250, 0.125, -0.625, 0.000, 0.875, 0.875, -0.125, 0.000, 0.250, -1.000, -0.250, -0.875, -0.750, 0.625, 0.875, 0.125, -0.125, 0.875, -0.125, -0.625, 0.500, 0.625, 0.750, -1.000, -0.375, 0.000, -1.000, -0.125, -1.000, 0.875, 0.125, -0.250, -0.625, 0.125, 0.750, -0.375, -0.125, 0.875, 0.875, 0.000, 0.125, 0.625, 0.625, -0.250, -1.000, -0.375, 0.000, -1.000, 0.875, 0.125, -1.000, -0.125, -0.125};
#endif

#endif
