//Numpy array shape [80, 32]
//Min -1.000000000000
//Max 0.875000000000
//Number of zeros 675

#ifndef W18_H_
#define W18_H_

#ifndef __SYNTHESIS__
weight18_t w18[2560];
#else
weight18_t w18[2560] = {0.250, 0.000, -0.250, -0.250, 0.000, -0.375, -0.125, -0.250, -0.250, 0.000, 0.000, 0.000, 0.000, 0.000, 0.000, 0.000, 0.500, 0.000, 0.000, -0.125, -0.125, 0.000, 0.125, -0.125, 0.000, -0.125, -0.125, 0.000, -0.250, 0.000, 0.250, 0.125, 0.125, 0.125, 0.125, 0.000, 0.375, 0.250, 0.250, -0.125, 0.125, -0.125, -0.125, -0.125, -0.125, -0.250, 0.125, -0.250, 0.000, -0.125, 0.000, 0.125, -0.250, -0.250, 0.000, 0.000, -0.125, 0.000, 0.000, 0.125, -0.125, 0.125, 0.125, 0.000, -0.625, -0.500, 0.375, -0.250, 0.250, 0.000, -0.125, 0.000, -0.250, 0.250, -0.125, 0.125, -0.250, -0.125, 0.125, 0.000, 0.375, 0.250, 0.500, 0.125, -0.125, 0.000, 0.250, -0.250, -0.250, 0.000, 0.000, -0.250, 0.000, -1.000, -0.375, -0.125, 0.125, -0.250, -0.125, 0.000, 0.375, 0.125, -0.125, 0.000, 0.125, -0.125, -0.250, 0.250, 0.000, 0.125, -0.250, 0.250, 0.000, 0.375, 0.000, 0.125, 0.000, -0.125, 0.125, -0.125, -0.250, 0.000, 0.125, 0.000, 0.125, 0.125, 0.000, 0.000, 0.000, 0.125, 0.125, 0.125, -0.125, 0.125, 0.000, -0.375, 0.125, 0.250, -0.125, 0.000, -0.125, 0.125, 0.125, 0.125, 0.250, -0.250, -0.250, 0.000, -0.125, -0.125, -0.375, 0.000, 0.125, 0.250, 0.000, -0.125, 0.250, -0.250, 0.000, 0.125, -0.125, -0.125, -0.250, 0.125, 0.000, -0.125, -0.125, -0.125, -0.250, 0.000, 0.250, 0.125, 0.125, 0.000, 0.250, 0.000, -0.125, 0.000, 0.000, 0.000, -0.125, 0.125, -0.375, 0.000, 0.250, 0.000, 0.125, 0.000, 0.000, -0.375, 0.125, 0.375, -0.125, -0.125, -0.125, 0.000, 0.000, -0.125, 0.125, 0.000, 0.125, 0.125, 0.250, 0.000, 0.000, 0.000, -0.250, -0.250, -0.250, 0.000, 0.125, 0.000, 0.375, 0.250, 0.000, -0.250, 0.125, 0.125, -0.125, 0.000, 0.000, -0.125, -0.125, 0.125, 0.250, -0.125, 0.000, 0.125, 0.250, -0.125, -0.250, -0.375, 0.000, -0.125, -0.250, -0.125, -0.125, 0.125, 0.250, -0.125, 0.000, 0.125, -0.250, 0.000, -0.250, -0.125, 0.000, 0.000, 0.125, -0.125, 0.000, -0.375, -0.250, 0.250, 0.375, 0.125, -0.125, 0.000, 0.125, 0.250, -0.125, -0.250, 0.125, 0.250, -0.125, -0.125, 0.250, 0.000, -0.375, 0.000, 0.375, -0.125, 0.125, 0.250, 0.125, 0.125, 0.375, -0.375, -0.250, 0.000, 0.500, 0.000, -0.125, -0.125, 0.250, 0.375, 0.125, 0.375, -0.125, 0.000, 0.125, 0.125, 0.125, -0.125, 0.000, 0.000, -0.375, 0.375, -0.125, 0.125, -0.250, -0.125, 0.250, -0.375, 0.375, 0.125, 0.375, 0.250, -0.125, -0.125, 0.375, 0.000, 0.125, 0.125, 0.125, 0.250, 0.125, -0.125, -0.250, -0.250, 0.250, 0.000, -0.125, 0.250, 0.125, 0.250, 0.125, 0.250, 0.000, -0.250, -0.125, 0.000, 0.625, 0.000, 0.125, 0.000, 0.000, 0.000, -0.250, -0.125, -0.125, 0.000, -0.125, 0.125, -0.125, 0.000, 0.125, -0.125, 0.125, -0.125, -0.125, -0.250, -0.125, 0.125, 0.125, 0.000, 0.250, -0.125, -0.125, 0.250, 0.250, 0.250, 0.125, -0.125, 0.125, 0.250, 0.000, 0.375, -0.125, 0.000, 0.375, 0.000, -0.125, 0.000, 0.375, 0.250, 0.250, -0.125, 0.125, -0.125, 0.125, 0.000, 0.125, 0.125, 0.000, 0.125, 0.000, 0.250, -0.125, 0.000, -0.250, -0.250, -0.125, -0.250, 0.000, 0.000, -0.250, -0.125, 0.000, 0.375, 0.875, 0.125, 0.000, -0.125, 0.125, 0.125, 0.375, 0.000, 0.000, -0.125, 0.125, 0.125, -0.125, 0.250, 0.250, 0.250, 0.625, -0.125, -0.125, -0.125, 0.000, 0.250, 0.000, 0.125, 0.125, -0.125, -0.125, 0.125, 0.125, 0.125, -0.125, 0.125, -0.375, -0.125, -0.250, 0.000, -0.250, -0.125, 0.000, -0.250, -0.250, 0.250, 0.250, 0.000, 0.250, 0.125, 0.250, 0.125, -0.125, 0.250, 0.000, 0.000, 0.125, 0.000, 0.000, -0.125, 0.000, 0.000, -0.375, -0.125, -0.250, 0.125, -0.125, -0.125, -0.125, 0.125, -0.250, -0.125, -0.125, 0.125, 0.250, -0.125, 0.000, 0.375, -0.125, 0.125, -0.375, 0.125, 0.125, 0.375, 0.000, 0.125, -0.125, 0.125, 0.000, -0.250, 0.000, 0.125, -0.250, 0.000, -0.250, -0.125, -0.125, 0.250, -0.375, -0.250, 0.125, 0.250, 0.000, 0.000, 0.000, -0.250, 0.125, 0.000, -0.375, 0.000, 0.000, 0.125, 0.125, 0.250, 0.375, 0.125, 0.250, -0.375, 0.125, 0.125, 0.000, 0.250, -0.125, 0.000, -0.375, 0.000, 0.000, 0.250, 0.000, -0.125, 0.250, -0.125, 0.000, 0.125, 0.000, 0.000, 0.125, -0.250, 0.000, -0.375, -0.125, 0.250, 0.125, 0.000, 0.000, 0.125, -0.250, -0.125, 0.125, 0.125, -0.125, -0.250, 0.250, 0.125, -0.250, -0.250, 0.250, -0.125, 0.000, -0.250, 0.125, -0.125, -0.375, 0.000, -0.125, -0.250, 0.125, 0.250, -0.125, 0.125, -0.125, 0.125, 0.125, -0.125, 0.125, -0.125, 0.250, -0.250, -0.250, 0.125, 0.125, -0.250, 0.000, 0.125, 0.250, 0.250, 0.000, 0.250, 0.250, -0.250, 0.125, 0.250, 0.000, -0.125, 0.000, -0.250, -0.125, 0.125, 0.000, 0.000, 0.125, -0.125, 0.000, -0.250, 0.000, 0.000, -0.125, -0.250, -0.250, 0.000, -0.125, 0.000, 0.250, -0.375, 0.125, 0.125, 0.000, 0.125, 0.375, -0.250, 0.000, -0.375, 0.000, 0.000, -0.125, 0.250, -0.125, 0.375, 0.000, -0.125, -0.125, 0.125, -0.125, -0.125, 0.250, -0.125, -0.125, 0.000, 0.000, -0.250, 0.250, 0.375, 0.125, -0.125, 0.250, 0.000, 0.000, -0.125, 0.000, 0.250, -0.125, 0.000, -0.250, -0.125, 0.125, 0.125, -0.125, 0.375, -0.375, -0.125, 0.125, 0.125, 0.000, -0.125, 0.000, 0.000, 0.000, 0.000, -0.500, 0.250, -0.125, 0.000, 0.250, 0.125, 0.250, 0.000, 0.000, -0.125, 0.125, -0.125, 0.125, 0.250, -0.125, -0.250, -0.375, -0.125, -0.375, -0.125, 0.000, 0.125, -0.125, 0.125, -0.125, 0.000, 0.125, 0.000, -0.125, -0.125, -0.125, 0.125, 0.125, 0.000, 0.000, -0.250, 0.125, 0.000, 0.250, 0.000, -0.125, -0.375, 0.250, -0.250, 0.000, 0.000, -0.125, -0.125, -0.250, -0.375, 0.000, -0.250, 0.250, -0.250, -0.125, 0.125, -0.125, -0.125, 0.000, -0.125, 0.125, -0.375, -0.125, 0.125, 0.000, -0.250, -0.125, 0.000, 0.000, -0.625, 0.000, -0.375, 0.000, 0.000, 0.000, 0.750, -0.250, 0.000, 0.125, 0.125, -0.125, -0.125, 0.125, 0.250, -0.250, 0.750, 0.250, -0.250, 0.875, -0.125, 0.250, 0.000, 0.125, 0.125, 0.875, -0.125, 0.000, 0.250, 0.250, 0.125, 0.125, 0.875, 0.000, 0.500, 0.125, 0.000, 0.125, 0.000, 0.250, 0.000, 0.250, -0.250, 0.125, -0.125, 0.125, 0.250, -0.125, 0.125, 0.125, -0.125, 0.125, 0.375, 0.000, 0.125, -0.250, 0.125, -0.125, -0.250, -0.125, 0.250, 0.375, -0.250, 0.375, -0.125, 0.125, 0.000, 0.000, -0.125, -0.125, 0.250, -0.125, 0.125, -0.125, -0.125, -0.250, -0.250, -0.250, 0.000, -0.125, -0.125, -0.125, -0.250, -0.125, 0.250, 0.000, 0.250, -0.125, 0.000, 0.000, -0.375, -0.125, 0.000, 0.125, 0.000, -0.125, -0.125, 0.125, -0.125, 0.000, 0.000, 0.125, 0.125, 0.000, 0.000, -0.125, -0.125, 0.250, -0.125, -0.125, 0.125, -0.125, 0.000, 0.000, -0.125, -0.125, 0.125, -0.125, -0.250, 0.000, -0.125, 0.000, 0.250, -0.125, -0.125, 0.250, 0.000, -0.125, 0.000, -0.250, -0.250, 0.375, 0.000, -0.375, 0.000, 0.000, 0.000, 0.000, 0.000, 0.000, 0.000, 0.125, 0.000, -0.125, 0.125, 0.125, 0.000, 0.375, 0.125, 0.125, 0.000, -0.125, -0.125, 0.125, 0.250, 0.250, 0.250, 0.125, -0.250, -0.125, 0.375, 0.125, 0.500, 0.250, -0.250, 0.125, -0.375, -0.125, 0.000, -0.125, -0.125, -0.125, 0.250, 0.250, -0.125, 0.375, -0.375, -0.250, -0.125, -0.250, 0.250, -0.125, 0.375, 0.000, -0.125, -0.250, -0.125, 0.125, -0.125, -0.250, 0.000, 0.125, -0.500, 0.000, -0.625, -0.250, 0.500, 0.375, -0.500, -0.250, 0.000, -0.125, -0.250, 0.000, 0.250, 0.000, 0.000, -0.375, -0.250, -0.250, -0.125, 0.625, 0.000, 0.500, 0.000, 0.125, -0.250, 0.500, 0.125, -0.125, 0.000, 0.375, -0.125, 0.000, -0.250, -0.250, 0.125, 0.125, 0.250, -0.250, 0.250, 0.125, 0.250, 0.000, 0.000, 0.250, -0.125, 0.000, 0.125, 0.125, 0.125, 0.125, 0.000, -0.375, 0.000, -0.250, 0.000, -0.125, 0.000, -0.125, 0.125, 0.000, 0.125, 0.250, -0.250, 0.375, 0.125, 0.250, 0.125, -0.375, 0.125, 0.250, 0.125, -0.125, 0.000, -0.125, -0.125, 0.375, -0.250, -0.125, 0.000, 0.125, -0.125, 0.250, 0.250, 0.250, 0.250, 0.375, 0.250, -0.125, -0.125, 0.125, -0.250, 0.375, 0.250, 0.000, 0.000, 0.000, -0.250, -0.625, -0.125, 0.000, -0.250, -0.125, 0.250, 0.250, 0.000, 0.125, -0.125, -0.375, -0.125, -0.125, 0.000, 0.000, -0.125, -0.125, 0.000, 0.000, 0.250, 0.000, 0.000, 0.125, 0.125, 0.000, 0.125, 0.000, 0.250, 0.250, -0.375, 0.125, -0.125, 0.125, 0.125, -0.375, -0.375, 0.375, -0.125, 0.125, 0.125, 0.250, 0.125, -0.375, 0.125, -0.125, -0.125, -0.750, 0.500, -0.125, 0.250, 0.250, 0.000, 0.625, 0.125, -0.250, -0.125, 0.500, 0.000, -0.250, 0.000, 0.000, 0.000, 0.000, -0.125, -0.250, -0.375, -0.125, -0.125, -0.125, 0.500, -0.250, 0.250, 0.000, 0.125, 0.250, 0.125, -0.250, 0.250, -0.250, 0.250, 0.125, -0.125, 0.875, 0.000, 0.250, 0.125, 0.000, -0.125, 0.875, -0.250, -0.250, 0.125, -0.125, -0.250, -0.125, 0.375, 0.000, 0.375, 0.125, -0.125, -0.125, -0.375, 0.250, -0.250, 0.125, 0.125, -0.125, -0.375, -0.250, -0.125, 0.000, 0.250, -0.125, -0.250, 0.000, 0.000, 0.000, 0.125, 0.125, 0.000, 0.250, -0.250, -0.125, -0.125, 0.000, -0.125, 0.250, 0.000, 0.375, 0.000, -0.125, -0.250, 0.000, -0.250, 0.125, -0.250, 0.250, 0.125, -0.250, -0.125, -0.125, 0.125, 0.000, 0.250, 0.000, -0.125, 0.250, 0.125, 0.500, 0.000, 0.125, -0.125, 0.375, -0.125, -0.125, 0.125, 0.125, -0.125, -0.250, 0.250, -0.125, 0.250, 0.000, 0.125, -0.125, 0.125, 0.125, 0.125, -0.125, 0.125, -0.125, -0.125, 0.000, 0.125, -0.125, -0.250, 0.375, 0.125, -0.125, 0.000, -0.250, 0.250, 0.000, 0.000, -0.250, 0.000, 0.500, -0.125, 0.000, -0.375, 0.000, 0.000, 0.125, 0.250, -0.125, -0.250, 0.000, 0.125, 0.125, 0.250, 0.250, 0.000, -0.250, -0.250, 0.000, 0.000, 0.000, 0.000, -0.125, -0.125, 0.000, 0.250, 0.000, 0.375, -0.125, 0.125, 0.000, 0.000, 0.000, -0.125, 0.375, -0.125, 0.000, -0.125, 0.125, 0.000, 0.125, 0.250, 0.000, 0.000, -0.250, 0.000, 0.125, 0.125, 0.250, 0.000, 0.125, 0.250, -0.250, 0.000, 0.000, -0.125, 0.750, 0.125, 0.125, -0.125, -0.125, 0.250, 0.000, 0.000, -0.125, 0.000, 0.000, -0.250, -0.125, 0.125, -0.125, 0.000, 0.000, 0.000, -0.250, -0.125, -0.125, -0.125, 0.125, 0.250, 0.375, -0.250, 0.250, -0.250, -0.125, -0.125, 0.125, -0.250, 0.125, 0.250, 0.000, 0.000, 0.000, -0.125, 0.250, 0.000, -0.125, 0.125, 0.250, 0.000, -0.250, 0.125, 0.250, 0.125, 0.125, 0.000, 0.375, 0.125, 0.375, -0.125, 0.000, 0.125, 0.000, 0.000, 0.125, 0.000, 0.250, -0.250, 0.375, 0.250, 0.125, 0.000, 0.000, -0.250, -0.375, -0.375, 0.000, 0.000, 0.000, -0.250, 0.000, -0.125, 0.250, 0.125, -0.250, 0.125, -0.125, -0.250, -0.125, 0.000, 0.125, 0.250, 0.125, -0.125, -0.375, 0.000, 0.125, 0.000, -0.125, 0.000, -0.125, 0.000, 0.000, 0.250, 0.000, 0.250, 0.250, 0.125, 0.000, 0.125, 0.000, 0.375, 0.000, 0.000, 0.000, 0.125, 0.250, -0.125, 0.250, -0.125, 0.250, -0.375, 0.000, 0.250, 0.250, -0.125, 0.125, 0.000, -0.250, 0.000, -0.125, 0.125, -0.250, 0.125, 0.250, 0.000, 0.125, 0.000, -0.125, -0.125, 0.500, 0.125, -0.250, 0.000, -0.125, 0.250, -0.250, 0.250, -0.250, 0.000, 0.125, 0.125, 0.125, -0.125, 0.125, 0.125, 0.125, 0.125, -0.125, -0.125, -0.125, -0.250, 0.000, -0.125, 0.125, -0.250, -0.125, 0.125, 0.000, 0.250, -0.250, 0.000, 0.000, 0.125, 0.000, 0.125, 0.125, 0.000, 0.250, 0.000, -0.125, 0.000, -0.125, 0.375, 0.000, 0.000, -0.250, -0.250, 0.125, 0.000, 0.250, 0.125, -0.125, 0.125, 0.375, 0.125, -0.125, -0.125, 0.000, 0.250, -0.125, 0.125, -0.250, 0.000, 0.125, 0.250, -0.125, 0.000, 0.000, 0.250, 0.000, 0.000, 0.125, 0.125, 0.250, 0.125, 0.000, -0.500, 0.125, -0.250, 0.000, 0.125, 0.250, -0.125, -0.375, 0.000, -0.125, 0.125, -0.375, -0.250, 0.250, 0.125, 0.250, -0.125, 0.000, 0.125, 0.375, -0.125, -0.250, 0.125, 0.000, -0.125, -0.125, -0.125, 0.000, -0.125, 0.375, -0.250, -0.250, -0.375, 0.125, 0.250, 0.000, 0.000, 0.250, -0.125, -0.125, 0.000, 0.375, -0.125, -0.125, -0.250, 0.000, 0.375, 0.000, 0.125, -0.250, -0.375, -0.125, -0.250, 0.000, 0.000, 0.375, -0.125, 0.000, 0.000, 0.250, 0.125, 0.125, 0.125, 0.125, 0.000, 0.000, -0.125, 0.000, -0.125, 0.000, 0.125, -0.125, -0.125, 0.125, 0.000, -0.125, 0.125, 0.250, 0.125, 0.250, -0.250, 0.000, 0.125, -0.250, -0.125, 0.000, -0.375, 0.125, 0.125, 0.000, -0.125, -0.125, 0.125, 0.125, -0.125, 0.000, 0.000, 0.125, 0.125, 0.000, -0.125, 0.000, 0.000, 0.125, 0.000, -0.125, 0.125, 0.250, 0.250, 0.000, 0.250, -0.125, 0.000, 0.000, 0.125, 0.125, 0.000, 0.125, 0.125, 0.250, 0.000, -0.125, 0.000, -0.125, 0.250, 0.000, -0.125, -0.250, -0.125, -0.125, -0.250, 0.125, 0.000, -0.125, 0.000, -0.125, -0.125, 0.125, -0.250, 0.125, 0.375, 0.000, -0.125, -0.125, -0.375, -0.125, -0.250, -0.125, -0.125, 0.125, -0.125, -0.125, 0.000, 0.125, 0.000, -0.125, 0.125, 0.125, -0.250, 0.375, 0.000, -0.250, 0.250, 0.125, 0.000, -0.250, 0.000, 0.000, 0.250, -0.125, -0.250, 0.000, 0.000, -0.125, 0.000, 0.250, -0.125, 0.000, -0.250, -0.125, 0.125, 0.125, 0.375, 0.000, 0.000, -0.125, -0.625, 0.125, -0.125, 0.125, -0.250, 0.125, 0.000, 0.250, 0.125, -0.250, -0.125, -0.500, -0.250, -0.125, 0.125, 0.000, -0.125, 0.000, -0.125, 0.000, 0.000, -0.125, 0.250, -0.125, -0.375, 0.125, 0.000, 0.125, 0.250, 0.125, -0.125, 0.125, -0.125, 0.000, 0.000, 0.000, -0.125, 0.125, 0.625, 0.125, 0.125, 0.000, 0.000, 0.250, 0.000, -0.125, 0.125, -0.500, 0.750, 0.125, -0.125, 0.875, -0.125, 0.250, 0.000, 0.125, -0.125, 0.875, -0.125, 0.000, 0.000, 0.125, 0.000, 0.000, 0.875, 0.250, 0.625, 0.000, -0.250, 0.125, 0.000, 0.125, 0.000, 0.250, 0.125, 0.000, 0.000, 0.000, 0.250, 0.000, 0.000, -0.125, -0.125, 0.125, 0.125, -0.125, 0.250, 0.000, 0.125, 0.000, -0.125, 0.125, 0.125, -0.125, -0.125, -0.125, -0.125, 0.125, -0.250, 0.000, 0.000, 0.000, -0.125, 0.125, 0.250, 0.250, -0.250, 0.000, -0.125, 0.000, 0.250, -0.125, 0.125, 0.000, 0.000, -0.125, 0.000, 0.000, 0.125, -0.125, 0.125, 0.000, -0.125, 0.125, 0.250, 0.125, 0.000, 0.125, -0.125, 0.125, -0.125, 0.000, -0.125, -0.250, -0.250, 0.125, 0.000, 0.000, 0.000, 0.000, -0.125, 0.000, 0.125, 0.000, 0.125, -0.125, -0.250, -0.250, 0.250, 0.250, -0.250, 0.000, -0.125, -0.125, 0.000, 0.000, -0.250, -0.125, 0.125, 0.000, 0.000, -0.250, -0.125, -0.125, -0.125, 0.250, 0.000, 0.125, 0.000, -0.125, -0.125, 0.250, 0.000, -0.125, -0.250, 0.000, -0.125, 0.000, 0.000, 0.000, -0.250, -0.125, -0.250, -0.250, -0.125, 0.000, -0.125, 0.000, -0.125, 0.250, -0.250, -0.125, -0.125, -0.125, -0.250, 0.000, 0.000, 0.000, 0.000, 0.000, 0.250, 0.250, 0.125, 0.125, -0.250, -0.250, 0.125, 0.000, -0.125, -0.125, 0.125, -0.125, 0.250, 0.000, -0.125, -0.125, -0.125, 0.000, -0.125, 0.250, 0.125, 0.125, 0.125, -0.250, -0.125, 0.250, -0.125, -0.500, -0.125, 0.250, 0.250, -0.125, 0.000, 0.000, -0.125, 0.000, -0.125, -0.500, 0.125, -0.625, 0.250, 0.500, -0.250, 0.500, -0.125, 0.125, 0.375, 0.000, -0.125, -0.125, 0.000, 0.375, 0.000, 0.125, -0.250, 0.000, -0.625, 0.125, 0.250, 0.000, -0.125, 0.125, 0.375, -0.250, 0.000, -0.125, -0.250, 0.000, 0.000, 0.000, -0.125, -0.250, -0.250, 0.375, 0.000, 0.000, 0.250, -0.250, 0.000, -0.125, 0.250, -0.625, 0.125, 0.375, 0.125, 0.250, -0.125, -0.250, -0.250, 0.000, 0.375, -0.375, -0.375, 0.500, 0.625, 0.000, 0.250, 0.125, -0.125, -0.125, 0.750, -0.250, 0.000, -0.250, -0.250, 0.375, -0.125, 0.125, 0.000, -0.250, -0.125, -0.125, 0.250, -0.750, 0.000, 0.375, 0.250, 0.000, -0.125, 0.250, -0.250, -0.125, 0.125, -0.125, -0.125, 0.250, -0.250, 0.375, 0.125, -0.125, 0.000, 0.250, 0.250, -0.125, -0.125, -0.125, 0.250, -0.125, 0.250, 0.375, 0.125, 0.375, 0.250, -0.125, 0.125, 0.500, 0.125, -0.125, 0.000, -0.125, -0.250, 0.000, 0.125, -0.375, 0.125, 0.125, 0.125, -0.250, 0.125, 0.250, -0.125, 0.000, 0.125, -0.125, -0.125, 0.125, 0.125, 0.000, 0.125, 0.000, -0.125, -0.125, 0.250, 0.000, -0.250, 0.000, -0.250, 0.250, -0.125, 0.000, 0.000, 0.000, -0.250, 0.000, -0.125, 0.125, -0.125, 0.250, -0.125, 0.000, -0.125, 0.000, 0.250, 0.000, 0.125, -0.125, -0.125, -0.125, 0.125, 0.125, 0.000, 0.125, 0.000, 0.250, 0.250, -0.250, 0.000, 0.125, -0.125, 0.000, -0.250, 0.250, -0.125, 0.125, 0.000, 0.000, 0.125, 0.000, -0.125, 0.000, -0.250, 0.125, -0.125, 0.125, 0.000, 0.375, 0.000, -0.125, -0.125, 0.125, 0.125, -0.125, 0.125, 0.125, 0.000, 0.000, 0.125, 0.000, 0.125, 0.250, -0.125, -0.125, 0.000, 0.000, 0.000, 0.000, -0.125, 0.250, 0.000, 0.250, -0.125, -0.375, -0.125, 0.375, -0.250, 0.000, 0.250, 0.250, 0.000, -0.250, 0.125, -0.125, -0.250, 0.000, -0.625, 0.000, -0.250, 0.000, 0.000, 0.125, -0.250, 0.000, 0.000, -0.250, 0.250, 0.125, 0.000, 0.250, -0.125, 0.000, -0.375, -0.125, -0.375, -0.125, 0.000, 0.000, -0.250, 0.000, -0.125, 0.000, -0.125, -0.250, 0.250, -0.125, -0.125, -0.375, 0.125, -0.125, -0.250, 0.750, 0.000, 0.375, 0.250, -0.250, -0.250, 0.750, 0.125, 0.125, 0.125, -0.125, -0.500, -0.125, 0.375, 0.000, 0.125, 0.125, -0.125, -0.125, 0.250, -0.125, 0.125, -0.250, -0.125, 0.000, -0.375, 0.125, 0.000, 0.125, 0.125, 0.125, -0.125, -0.125, -0.250, -0.375, 0.375, 0.250, 0.000, -0.125, 0.000, -0.125, 0.125, -0.125, -0.125, -0.125, -0.125, 0.125, 0.250, 0.250, -0.125, 0.000, -0.125, -0.125, -0.250, -0.250, 0.125, -0.375, -0.250, 0.000, 0.000, -0.250, 0.375, -0.500, -0.125, 0.000, -0.250, -0.250, 0.250, -0.125, 0.125, 0.375, 0.000, -0.375, 0.250, 0.000, -0.250, 0.000, 0.000, 0.250, 0.000, 0.000, -0.250, 0.000, 0.000, 0.250, 0.125, -0.250, -0.250, 0.250, 0.125, 0.000, 0.250, -0.125, 0.125, 0.000, 0.125, 0.000, 0.125, 0.125, 0.375, -0.250, -0.125, -0.125, -0.250, 0.000, 0.125, 0.250, 0.000, 0.000, 0.000, 0.000, 0.000, 0.250, -0.250, -0.250, -0.125, 0.125, 0.125, 0.000, 0.125, 0.125, -0.250, 0.250, 0.250, 0.000, 0.125, -0.250, -0.375, 0.000, 0.125, 0.000, 0.250, -0.125, -0.125, 0.125, 0.125, -0.375, 0.000, 0.375, -0.125, 0.000, 0.125, 0.250, -0.125, 0.125, -0.125, -0.125, 0.250, 0.125, 0.250, -0.125, 0.000, 0.000, -0.250, -0.125, 0.000, 0.000, -0.250, -0.125, 0.000, 0.250, 0.000, 0.125, 0.000, -0.125, -0.250, 0.375, 0.250, 0.250, 0.000, 0.250, -0.125, 0.125, 0.250, -0.125, 0.125, 0.000, 0.250, 0.000, 0.125, 0.000, 0.125, 0.125, -0.250, 0.125, 0.000, -0.125, -0.250, 0.000, 0.000, 0.000, 0.000, 0.000, 0.125, 0.000, 0.000, -0.125, -0.125, -0.125, 0.125, 0.250, -0.250, 0.125, 0.375, 0.000, 0.125, 0.125, -0.125, -0.375, 0.375, 0.375, 0.500, 0.125, 0.000, 0.125, 0.000, -0.250, -0.250, -0.375, 0.000, -0.375, 0.000, 0.375, 0.125, 0.500, 0.000, 0.000, 0.250, -0.250, 0.000, -0.500, -0.250, 0.250, 0.125, -0.125, -0.125, 0.125, -0.250, 0.000, 0.000, -0.250, 0.000, 0.125, 0.125, -0.125, 0.000, 0.250, -0.250, 0.000, -0.250, 0.250, 0.000, 0.000, -0.125, -0.125, 0.000, -0.250, -0.125, 0.125, 0.000, -0.125, 0.000, 0.000, 0.000, 0.125, -0.125, 0.000, -0.125, 0.125, 0.125, -0.125, -0.250, 0.000, -0.250, 0.000, 0.125, 0.250, -0.125, -0.250, -0.125, -0.125, -0.125, 0.000, -0.125, 0.000, -0.125, -0.125, -0.125, -0.125, 0.000, 0.000, 0.125, -0.125, 0.125, 0.125, -0.125, 0.250, 0.125, 0.125, -0.250, 0.000, -0.125, 0.125, -0.125, 0.375, 0.000, -0.250, -0.250, 0.000, 0.125, -0.125, 0.125, -0.125, 0.250, -0.125, -0.125, 0.000, 0.250, -0.375, -0.250, 0.000, 0.250, 0.125, 0.000, 0.000, 0.000, 0.375, 0.000, -0.375, 0.000, 0.250, 0.000, -0.125, 0.250, 0.125, 0.000, 0.000, 0.250, 0.000, 0.000, 0.000, 0.250, 0.125, 0.000, -0.125, -0.375, -0.250, 0.000, 0.000, 0.000, 0.000, -0.125, 0.125, 0.000, 0.000, 0.250, -0.250, 0.125, -0.125, -0.125, 0.125, 0.000, 0.125, 0.125, -0.125, 0.000, 0.125, -0.125, -0.125, 0.250, 0.000, -0.125, -0.125, -0.125, -0.250, -0.125, -0.250, 0.000, 0.000, -0.250, 0.000, -0.250, -0.125, 0.000, 0.125, 0.000, 0.125, -0.250, 0.000, 0.250, 0.000, 0.000, 0.000, 0.000, 0.250, 0.000, 0.125, -0.125, -0.125, 0.125};
#endif

#endif
