//Numpy array shape [72]
//Min -0.937500000000
//Max 0.359375000000
//Number of zeros 1

#ifndef B21_H_
#define B21_H_

#ifndef __SYNTHESIS__
bias21_t b21[72];
#else
bias21_t b21[72] = {-0.0937500, -0.3828125, -0.0625000, -0.3437500, -0.0312500, -0.0156250, -0.2187500, -0.5312500, 0.0156250, -0.3046875, -0.0859375, 0.1718750, -0.0312500, 0.1015625, -0.0390625, 0.1484375, -0.0234375, -0.1093750, -0.0234375, 0.0546875, -0.0390625, -0.0312500, -0.0234375, -0.6796875, -0.7734375, -0.9375000, -0.4453125, -0.0312500, 0.0546875, 0.1015625, -0.5078125, 0.0078125, 0.0546875, -0.0312500, -0.1093750, -0.3125000, -0.0312500, 0.0468750, -0.0078125, -0.0078125, 0.1718750, -0.0312500, -0.2031250, -0.3281250, -0.1171875, 0.1484375, 0.0546875, 0.1562500, -0.7187500, -0.0781250, -0.8671875, 0.1640625, -0.0312500, 0.2890625, -0.0234375, -0.1718750, -0.0390625, -0.0312500, -0.7656250, 0.1406250, 0.0000000, -0.0546875, 0.3593750, 0.0859375, -0.1875000, -0.0312500, -0.1093750, -0.0468750, 0.2500000, 0.0781250, -0.0078125, -0.0234375};
#endif

#endif
