//Numpy array shape [3, 24]
//Min -1.000000000000
//Max 0.992187500000
//Number of zeros 1

#ifndef W16_H_
#define W16_H_

#ifndef __SYNTHESIS__
weight16_t w16[72];
#else
weight16_t w16[72] = {0.2187500, -0.0156250, -0.7031250, -0.8281250, -0.4843750, -0.0937500, 0.9921875, 0.5000000, 0.0937500, 0.9921875, 0.2500000, 0.0468750, -0.9609375, -0.2656250, 0.1640625, 0.9921875, 0.1015625, -0.5390625, -0.9375000, -0.2265625, -0.3750000, -0.0078125, 0.0078125, 0.9609375, 0.9218750, 0.1328125, 0.0156250, 0.4218750, 0.2343750, 0.4687500, 0.9453125, 0.2890625, -0.6796875, -0.2656250, -0.0156250, -0.5546875, -0.9140625, -0.2656250, 0.4062500, -0.7578125, 0.3984375, -0.1484375, -0.8593750, -0.2812500, -0.0859375, 0.9921875, 0.1953125, -0.0859375, 0.8437500, 0.3671875, 0.1640625, -0.2734375, 0.6562500, 0.0156250, -0.6328125, 0.0703125, 0.0156250, -0.5781250, -0.1796875, 0.2421875, -1.0000000, 0.0000000, 0.0156250, 0.5468750, -0.3984375, 0.0859375, -0.5781250, -0.0781250, -0.3984375, -1.0000000, 0.0312500, -0.0468750};
#endif

#endif
