//Numpy array shape [3, 3, 1, 8]
//Min -1.000000000000
//Max 0.992187500000
//Number of zeros 3

#ifndef W9_H_
#define W9_H_

#ifndef __SYNTHESIS__
weight9_t w9[72];
#else
weight9_t w9[72] = {-0.9843750, 0.0859375, 0.3046875, 0.0156250, 0.8515625, -0.6171875, 0.4140625, 0.0234375, 0.0000000, 0.3750000, 0.5078125, 0.3125000, 0.8281250, -0.1484375, -0.3437500, 0.0000000, -0.0156250, 0.0546875, 0.2343750, 0.3671875, -0.3281250, 0.7890625, 0.1171875, 0.1953125, 0.0000000, -1.0000000, -1.0000000, 0.6093750, 0.6796875, -0.4531250, -0.5156250, -0.8671875, -1.0000000, 0.6796875, 0.2187500, -0.9140625, 0.2578125, -0.9843750, -1.0000000, 0.6328125, -0.5312500, -0.0859375, -0.5703125, 0.9921875, 0.1093750, 0.1640625, 0.8515625, -0.0703125, 0.3828125, 0.5000000, 0.8359375, -0.3046875, -0.3906250, 0.2968750, -0.3906250, 0.5703125, -0.8593750, -0.7187500, 0.3515625, -0.2500000, -1.0000000, -0.3125000, 0.8046875, -0.6093750, 0.7578125, -0.0156250, -1.0000000, -0.5468750, -0.8828125, 0.2343750, -0.6718750, 0.9921875};
#endif

#endif
