//Numpy array shape [65, 39]
//Min -0.750000000000
//Max 0.750000000000
//Number of zeros 633

#ifndef W18_H_
#define W18_H_

#ifndef __SYNTHESIS__
weight18_t w18[2535];
#else
weight18_t w18[2535] = {-0.125, 0.000, -0.375, 0.125, -0.250, 0.000, -0.125, -0.250, -0.250, -0.250, -0.250, 0.000, 0.125, -0.125, -0.750, -0.125, -0.375, -0.125, 0.125, 0.250, 0.500, 0.000, 0.500, -0.250, -0.250, 0.000, 0.500, 0.375, 0.125, 0.625, 0.125, -0.250, 0.250, 0.250, -0.250, -0.125, -0.125, -0.125, 0.500, -0.125, 0.125, 0.375, 0.000, -0.125, 0.125, 0.125, 0.125, -0.250, 0.000, -0.125, -0.125, 0.250, 0.250, 0.250, 0.000, 0.000, 0.125, 0.375, 0.125, -0.125, 0.250, 0.250, 0.125, 0.125, 0.375, 0.000, -0.125, 0.125, -0.250, -0.125, -0.250, 0.250, 0.250, 0.000, 0.000, 0.125, -0.250, -0.250, 0.000, -0.250, 0.250, 0.000, 0.125, -0.125, 0.125, -0.250, 0.000, 0.000, -0.250, 0.125, 0.000, -0.125, 0.000, 0.250, 0.125, 0.375, -0.250, -0.125, -0.250, 0.000, -0.375, -0.125, -0.125, 0.000, -0.125, -0.375, 0.125, 0.125, -0.125, -0.250, 0.125, 0.250, 0.000, 0.125, 0.250, 0.125, 0.000, 0.125, -0.375, 0.000, -0.250, 0.000, 0.000, 0.000, -0.125, 0.250, -0.375, -0.375, 0.250, 0.125, -0.250, 0.125, 0.375, 0.000, 0.250, 0.125, -0.125, 0.125, -0.500, -0.250, -0.375, 0.000, -0.125, -0.125, -0.125, 0.000, -0.250, 0.250, 0.375, -0.375, -0.250, 0.000, -0.125, 0.000, 0.125, -0.250, 0.000, 0.000, -0.375, 0.000, 0.000, 0.125, 0.125, 0.125, 0.000, -0.125, 0.125, 0.125, -0.250, -0.250, 0.375, 0.250, 0.000, -0.250, -0.125, 0.125, 0.125, 0.125, -0.125, 0.125, -0.250, -0.125, 0.000, -0.125, -0.125, -0.250, -0.125, 0.000, 0.000, -0.125, -0.250, 0.250, 0.250, -0.375, -0.250, 0.000, 0.000, -0.250, -0.250, -0.125, -0.250, 0.125, 0.375, -0.250, 0.250, -0.375, -0.250, 0.125, -0.125, 0.000, 0.000, 0.250, -0.125, 0.125, 0.000, -0.125, -0.250, -0.125, -0.125, 0.125, 0.125, -0.250, 0.125, 0.375, 0.125, -0.250, 0.375, 0.000, -0.375, -0.250, 0.000, 0.125, -0.125, 0.125, 0.125, 0.125, 0.000, 0.125, 0.250, 0.125, 0.125, 0.250, -0.125, -0.250, -0.125, -0.250, 0.000, -0.250, 0.125, -0.250, 0.000, 0.000, -0.125, 0.250, 0.125, -0.125, 0.000, 0.000, 0.125, 0.000, 0.125, 0.125, 0.000, 0.125, 0.375, 0.000, 0.125, 0.000, -0.250, 0.000, 0.250, -0.125, 0.375, 0.000, -0.125, 0.000, 0.000, -0.250, 0.000, -0.125, 0.000, 0.000, 0.250, 0.000, -0.125, 0.000, 0.250, 0.125, -0.125, 0.000, -0.250, -0.125, 0.125, -0.125, 0.000, -0.500, 0.000, 0.250, -0.250, 0.000, 0.125, -0.125, 0.000, -0.125, -0.250, -0.125, 0.000, 0.000, -0.125, 0.000, 0.000, -0.125, -0.125, 0.000, 0.000, 0.125, 0.000, 0.000, -0.125, 0.250, 0.000, 0.125, 0.000, -0.250, -0.125, 0.125, 0.000, 0.000, 0.000, 0.000, 0.125, -0.250, -0.125, -0.125, -0.250, 0.000, 0.125, 0.000, -0.125, 0.250, 0.125, 0.125, 0.125, 0.000, -0.250, -0.250, 0.125, 0.000, -0.125, 0.000, -0.125, -0.125, 0.000, 0.000, 0.375, 0.125, -0.375, 0.000, 0.000, -0.375, 0.125, -0.125, 0.125, 0.125, -0.250, 0.125, -0.250, -0.250, 0.000, 0.125, 0.000, 0.125, 0.000, 0.000, 0.125, -0.125, -0.250, 0.125, -0.375, 0.125, 0.375, 0.250, 0.125, 0.000, 0.000, 0.000, -0.375, -0.125, 0.000, 0.000, 0.125, 0.000, -0.500, 0.250, -0.125, 0.375, -0.375, -0.125, -0.375, -0.125, 0.000, -0.125, -0.250, 0.000, 0.500, -0.250, 0.000, 0.250, 0.125, -0.375, 0.000, -0.125, -0.125, -0.250, -0.125, -0.375, 0.375, 0.000, -0.375, -0.250, 0.250, -0.125, 0.125, 0.125, 0.000, 0.000, 0.250, -0.250, 0.625, -0.375, -0.250, 0.125, 0.250, 0.125, 0.125, 0.000, -0.250, -0.125, -0.250, 0.000, -0.250, -0.375, 0.250, 0.250, -0.125, 0.000, 0.000, 0.250, -0.250, 0.375, -0.125, 0.375, 0.000, 0.000, 0.000, 0.000, 0.125, 0.125, 0.250, -0.125, -0.250, 0.375, 0.375, 0.125, -0.125, 0.250, 0.000, 0.125, 0.125, -0.250, -0.125, 0.000, 0.000, 0.125, -0.250, 0.000, 0.125, 0.125, -0.250, -0.375, -0.125, -0.125, -0.125, 0.000, 0.125, -0.250, -0.125, 0.000, 0.125, -0.125, 0.000, 0.000, 0.125, -0.250, -0.125, 0.000, 0.125, 0.250, 0.000, -0.125, 0.125, -0.125, 0.125, 0.000, -0.125, -0.125, 0.125, 0.000, 0.000, 0.000, -0.125, 0.375, 0.125, -0.250, -0.125, 0.125, 0.250, 0.000, -0.250, -0.375, -0.125, 0.000, 0.125, 0.000, -0.250, 0.000, 0.250, -0.125, 0.000, -0.375, 0.125, 0.250, 0.125, -0.125, 0.250, -0.125, 0.375, -0.125, -0.125, 0.000, 0.125, -0.250, 0.125, -0.250, -0.125, 0.125, -0.125, -0.250, -0.125, 0.000, -0.125, 0.000, -0.125, 0.000, 0.125, 0.125, -0.125, 0.000, 0.000, 0.125, 0.125, -0.125, -0.125, -0.125, 0.000, 0.375, -0.125, -0.125, 0.000, 0.000, 0.000, 0.125, -0.125, -0.125, 0.250, -0.125, 0.000, -0.250, -0.125, -0.250, 0.000, -0.125, 0.000, -0.125, 0.000, 0.000, -0.125, 0.125, 0.000, -0.250, -0.125, 0.000, 0.250, 0.000, -0.250, 0.000, -0.125, 0.125, -0.125, -0.125, 0.125, 0.250, 0.125, 0.000, 0.000, -0.375, 0.250, -0.125, -0.500, 0.250, -0.250, 0.250, -0.125, 0.500, 0.125, 0.125, 0.125, -0.250, -0.125, -0.125, 0.000, 0.250, -0.125, 0.250, -0.250, 0.250, 0.125, 0.250, -0.125, 0.500, -0.125, 0.250, 0.250, -0.125, -0.250, 0.125, -0.375, 0.000, 0.000, -0.125, 0.000, -0.250, 0.125, 0.125, -0.125, 0.375, -0.375, -0.250, 0.000, -0.125, -0.250, -0.125, 0.125, -0.625, 0.250, 0.125, 0.000, 0.125, 0.000, 0.250, 0.000, -0.125, -0.500, -0.250, 0.000, 0.000, 0.125, 0.000, -0.125, -0.125, 0.125, 0.125, 0.000, -0.125, -0.125, 0.125, -0.125, -0.125, 0.000, 0.000, 0.000, 0.125, 0.125, 0.125, -0.125, 0.125, -0.125, 0.250, 0.125, -0.125, 0.000, -0.125, -0.250, 0.000, -0.125, -0.250, -0.125, 0.000, -0.250, -0.125, -0.125, 0.000, 0.000, -0.250, 0.250, -0.250, -0.250, 0.250, 0.125, 0.250, 0.000, -0.125, 0.000, 0.000, 0.000, -0.125, 0.000, -0.125, 0.125, 0.000, -0.250, -0.125, 0.000, -0.125, -0.125, 0.000, -0.125, 0.000, -0.125, -0.125, 0.250, 0.000, 0.125, -0.125, -0.125, -0.125, -0.125, -0.250, 0.125, 0.000, 0.000, 0.000, 0.125, -0.500, 0.250, -0.125, -0.250, 0.000, 0.000, -0.375, 0.250, 0.000, -0.375, -0.125, 0.125, 0.250, 0.000, -0.375, 0.000, 0.125, 0.000, -0.250, -0.250, -0.125, -0.375, -0.250, 0.125, 0.250, -0.125, -0.375, 0.000, 0.250, -0.250, -0.375, 0.000, -0.375, -0.375, 0.250, -0.500, 0.125, 0.000, -0.125, 0.000, -0.125, 0.000, 0.250, 0.250, -0.250, 0.125, -0.125, 0.000, -0.250, 0.125, 0.250, 0.000, 0.125, 0.000, 0.000, 0.000, 0.000, -0.500, -0.125, -0.125, -0.125, -0.250, 0.000, 0.125, -0.125, 0.125, 0.125, -0.125, -0.125, 0.125, 0.000, 0.000, 0.125, 0.125, 0.125, 0.125, -0.125, -0.250, -0.125, 0.250, 0.250, -0.250, 0.250, 0.000, -0.125, 0.125, -0.250, 0.000, -0.250, -0.250, 0.250, -0.125, -0.125, -0.375, 0.000, 0.125, 0.250, 0.125, -0.125, -0.125, -0.125, 0.375, 0.000, 0.125, -0.250, -0.125, 0.125, -0.125, -0.250, 0.125, -0.125, 0.125, 0.125, -0.250, -0.125, -0.375, 0.000, 0.250, 0.000, -0.125, 0.375, 0.000, -0.125, 0.000, -0.250, 0.000, 0.125, -0.375, 0.125, -0.125, -0.125, 0.000, -0.125, -0.125, 0.000, -0.125, 0.375, 0.125, 0.000, -0.250, -0.125, 0.250, -0.125, 0.000, 0.125, 0.125, 0.250, 0.125, 0.250, 0.000, -0.375, 0.000, -0.125, 0.000, -0.125, -0.125, 0.000, -0.250, 0.250, 0.375, 0.250, -0.125, 0.000, 0.250, 0.000, -0.125, -0.125, 0.125, -0.125, -0.250, 0.000, 0.000, 0.125, -0.125, -0.250, 0.125, -0.125, -0.375, 0.125, -0.125, 0.125, -0.125, 0.125, 0.000, 0.000, 0.000, -0.125, 0.125, -0.500, 0.000, 0.125, -0.250, 0.125, 0.000, -0.125, 0.125, 0.125, -0.125, 0.000, -0.500, 0.125, 0.000, -0.375, 0.125, 0.000, -0.250, -0.250, -0.125, -0.125, 0.250, 0.000, -0.125, 0.125, -0.125, -0.125, 0.125, 0.000, 0.000, 0.000, -0.125, 0.000, -0.125, 0.000, 0.125, 0.125, 0.250, -0.125, 0.125, 0.000, 0.125, -0.125, 0.250, -0.125, 0.125, -0.125, -0.250, 0.250, 0.500, 0.250, 0.250, 0.000, 0.375, 0.250, -0.250, -0.250, 0.000, -0.250, 0.125, -0.250, 0.250, -0.125, -0.250, 0.000, 0.125, 0.125, 0.125, -0.375, 0.000, 0.125, 0.125, 0.250, -0.125, 0.250, -0.250, 0.000, -0.250, 0.000, -0.125, 0.000, -0.125, 0.375, 0.125, -0.250, -0.125, 0.000, -0.125, -0.125, -0.125, -0.250, -0.500, 0.250, 0.000, 0.000, -0.125, 0.000, 0.000, -0.375, 0.125, 0.375, 0.000, 0.125, 0.500, 0.000, 0.500, -0.125, 0.000, 0.250, 0.125, 0.250, -0.250, 0.000, 0.125, 0.000, 0.125, -0.250, 0.125, 0.000, -0.250, -0.375, 0.000, 0.125, -0.125, -0.250, -0.375, -0.250, 0.250, 0.250, 0.000, 0.000, -0.125, 0.125, 0.125, -0.125, 0.000, -0.375, 0.000, -0.125, 0.000, 0.250, 0.250, -0.125, -0.375, 0.000, 0.250, -0.125, -0.125, 0.000, 0.250, 0.125, 0.125, 0.250, -0.125, 0.000, -0.250, -0.125, 0.250, -0.250, -0.375, 0.375, -0.250, 0.000, -0.125, 0.500, -0.250, -0.375, -0.125, 0.125, -0.250, 0.250, 0.250, 0.000, 0.125, 0.125, 0.500, 0.125, -0.250, -0.125, -0.125, 0.000, 0.125, -0.125, -0.375, 0.000, 0.250, 0.000, -0.125, -0.125, -0.250, 0.250, 0.125, 0.125, 0.000, -0.125, 0.000, 0.125, -0.125, -0.250, 0.250, 0.125, 0.125, 0.000, 0.000, 0.125, -0.125, -0.125, -0.125, -0.250, 0.125, 0.000, -0.125, -0.125, -0.125, -0.125, 0.375, 0.000, 0.000, 0.125, 0.000, 0.250, 0.000, 0.125, 0.000, 0.250, 0.125, 0.000, 0.250, -0.125, 0.125, 0.125, 0.000, -0.125, -0.125, -0.250, -0.125, -0.125, 0.000, 0.000, -0.125, 0.000, -0.375, -0.125, 0.000, 0.000, -0.375, -0.125, -0.125, 0.250, 0.125, -0.250, -0.125, 0.125, 0.250, 0.250, -0.250, -0.125, -0.125, 0.125, 0.125, 0.000, -0.125, 0.000, 0.250, 0.125, 0.125, -0.125, -0.125, 0.125, 0.125, -0.250, 0.125, 0.125, -0.125, -0.125, -0.375, 0.125, 0.000, 0.125, 0.000, 0.125, -0.125, -0.125, 0.125, 0.000, -0.125, 0.250, 0.250, -0.125, 0.250, 0.000, 0.000, 0.125, -0.125, 0.000, -0.250, 0.125, 0.000, 0.125, 0.000, -0.250, 0.000, -0.375, 0.125, 0.125, -0.125, 0.125, -0.125, -0.125, -0.250, 0.000, 0.125, -0.250, 0.250, 0.000, 0.000, 0.125, 0.000, -0.250, 0.000, 0.000, 0.000, -0.250, 0.125, -0.250, -0.500, -0.125, 0.000, -0.250, 0.000, 0.375, -0.250, -0.125, 0.375, 0.125, 0.000, 0.000, 0.125, -0.250, 0.375, 0.125, 0.000, -0.125, -0.125, -0.125, 0.250, 0.000, -0.250, 0.125, 0.125, 0.000, 0.125, -0.125, -0.250, -0.125, -0.125, 0.125, 0.000, 0.250, -0.125, -0.125, -0.125, -0.250, 0.000, -0.125, 0.000, 0.000, -0.125, -0.375, 0.125, 0.000, -0.125, 0.000, 0.250, -0.250, -0.125, 0.000, -0.125, 0.000, 0.000, 0.375, 0.000, 0.125, 0.125, 0.000, -0.125, -0.125, 0.250, 0.125, 0.000, -0.375, 0.250, -0.125, -0.125, 0.250, -0.125, 0.000, 0.125, 0.000, 0.125, 0.000, 0.250, 0.375, 0.250, -0.250, -0.125, -0.125, 0.125, -0.250, -0.125, 0.000, 0.125, 0.000, 0.000, -0.250, 0.125, -0.125, 0.250, -0.250, 0.250, 0.000, 0.250, -0.250, 0.125, 0.000, -0.250, 0.125, 0.000, -0.250, 0.000, -0.250, 0.000, -0.250, -0.125, 0.000, 0.125, 0.000, 0.250, -0.125, -0.125, 0.125, 0.125, 0.000, 0.250, 0.000, -0.250, 0.250, 0.000, 0.000, 0.125, 0.125, -0.125, 0.000, 0.000, 0.000, -0.250, -0.125, 0.250, 0.000, -0.125, -0.250, -0.125, -0.125, 0.000, 0.000, 0.125, 0.125, 0.000, -0.500, 0.125, -0.125, -0.125, -0.375, 0.000, 0.375, 0.250, 0.250, -0.125, -0.125, 0.375, -0.250, 0.000, -0.125, 0.000, 0.000, 0.125, -0.125, -0.125, -0.250, -0.125, 0.125, 0.125, 0.250, 0.000, -0.125, 0.125, 0.250, 0.125, -0.125, -0.125, -0.375, 0.250, 0.000, 0.125, 0.125, -0.250, -0.125, 0.250, -0.375, 0.250, -0.250, 0.250, -0.125, 0.125, -0.125, 0.000, -0.250, -0.375, -0.375, -0.125, -0.250, 0.125, 0.125, -0.250, -0.125, -0.375, -0.125, 0.000, -0.375, 0.125, 0.375, -0.125, -0.125, -0.375, 0.625, -0.125, -0.125, -0.250, 0.375, 0.375, 0.125, 0.625, 0.250, 0.000, -0.125, 0.000, -0.250, 0.125, 0.500, 0.250, 0.500, 0.000, 0.250, 0.250, -0.125, 0.250, 0.125, 0.000, 0.250, 0.000, 0.000, 0.250, 0.125, 0.375, 0.125, 0.125, 0.000, 0.250, 0.125, -0.250, 0.000, -0.125, 0.125, 0.250, 0.125, -0.375, 0.000, -0.125, 0.250, 0.250, -0.125, -0.250, -0.125, 0.250, 0.000, 0.125, 0.000, 0.125, -0.250, 0.000, -0.125, -0.250, -0.125, 0.250, -0.250, 0.000, -0.125, 0.000, -0.250, 0.125, -0.375, -0.375, 0.125, -0.125, 0.625, 0.000, 0.125, 0.000, 0.000, 0.000, -0.375, 0.000, -0.250, -0.250, -0.125, 0.250, 0.375, 0.000, 0.000, -0.125, 0.125, -0.125, 0.000, -0.125, 0.250, 0.250, 0.375, -0.375, 0.250, -0.250, -0.125, -0.250, 0.375, -0.250, -0.125, -0.125, 0.125, -0.500, 0.125, 0.125, -0.250, 0.125, -0.500, 0.125, 0.125, -0.125, 0.125, 0.375, -0.125, 0.375, 0.000, 0.250, -0.125, 0.000, -0.125, 0.125, 0.000, -0.125, 0.375, 0.250, 0.000, 0.250, 0.125, -0.125, 0.125, -0.250, 0.000, -0.250, 0.000, 0.000, -0.250, 0.125, 0.000, 0.375, 0.250, 0.000, 0.125, -0.125, 0.125, -0.250, 0.125, -0.125, -0.250, 0.125, -0.125, -0.375, 0.000, 0.125, 0.125, -0.125, 0.125, 0.000, 0.000, 0.250, -0.250, -0.125, 0.000, 0.000, -0.125, 0.250, -0.250, -0.125, 0.000, 0.125, 0.000, -0.250, 0.000, -0.250, 0.000, 0.125, 0.250, 0.000, 0.125, -0.375, -0.125, -0.125, -0.125, 0.125, -0.375, -0.125, -0.125, 0.125, 0.000, 0.000, 0.000, -0.250, 0.000, -0.125, -0.500, -0.125, 0.250, 0.125, 0.125, 0.000, -0.250, 0.000, 0.250, 0.250, 0.125, 0.000, 0.250, 0.000, 0.000, 0.125, -0.125, -0.125, 0.000, -0.250, 0.125, 0.000, 0.000, 0.250, -0.375, 0.250, 0.000, 0.125, -0.125, 0.125, -0.250, -0.125, 0.125, 0.125, 0.125, 0.125, 0.250, 0.000, 0.000, -0.125, 0.000, 0.000, 0.125, 0.250, 0.125, -0.125, 0.000, -0.125, 0.125, 0.000, 0.000, 0.000, 0.125, 0.125, 0.000, 0.000, -0.250, 0.125, -0.250, 0.000, -0.250, 0.125, 0.250, 0.000, 0.125, -0.250, -0.125, 0.125, 0.125, 0.000, -0.125, 0.000, -0.250, 0.125, 0.250, 0.000, 0.000, -0.375, 0.000, 0.125, 0.125, -0.125, 0.125, -0.250, -0.250, 0.000, 0.000, 0.000, 0.375, 0.000, -0.250, -0.125, 0.125, 0.000, 0.000, 0.000, 0.125, -0.125, -0.125, 0.125, 0.250, -0.125, 0.125, 0.250, 0.000, 0.250, 0.250, 0.000, 0.000, 0.250, 0.125, 0.000, -0.125, 0.000, 0.000, -0.125, -0.125, -0.250, -0.250, -0.125, 0.000, 0.000, 0.000, -0.375, 0.125, -0.125, 0.250, -0.125, -0.125, 0.000, -0.125, 0.000, 0.375, 0.000, 0.000, -0.250, -0.250, -0.125, 0.125, 0.125, 0.125, 0.250, 0.000, 0.125, -0.250, -0.125, -0.250, -0.125, 0.125, 0.125, -0.125, -0.125, -0.250, -0.125, -0.125, 0.000, 0.125, 0.000, 0.125, -0.125, -0.250, 0.250, -0.375, 0.000, -0.250, 0.125, 0.000, 0.000, -0.250, 0.125, 0.125, -0.250, 0.375, -0.125, 0.000, -0.250, -0.125, 0.000, -0.125, -0.250, -0.375, -0.125, 0.250, 0.125, -0.125, 0.250, -0.375, -0.125, 0.375, -0.125, -0.250, 0.125, -0.250, 0.125, 0.000, -0.250, 0.125, 0.125, -0.375, 0.125, 0.125, -0.250, -0.125, 0.125, 0.000, 0.000, 0.000, 0.250, 0.125, 0.125, 0.250, 0.000, 0.000, -0.125, 0.000, -0.375, 0.250, -0.500, -0.250, 0.250, -0.250, 0.000, -0.250, -0.375, 0.000, -0.125, 0.125, 0.375, 0.000, -0.125, -0.125, 0.125, 0.125, 0.375, 0.375, 0.250, -0.250, 0.000, -0.250, -0.375, 0.125, -0.500, 0.125, -0.125, 0.000, -0.250, 0.000, -0.125, 0.000, -0.250, 0.000, -0.250, 0.250, 0.250, 0.125, -0.125, -0.250, 0.125, -0.250, 0.125, 0.250, 0.250, 0.000, 0.125, -0.250, 0.000, 0.125, 0.000, 0.000, 0.000, -0.125, -0.125, -0.625, 0.250, -0.500, 0.125, -0.125, -0.250, -0.250, -0.375, 0.125, 0.000, 0.000, 0.125, 0.000, -0.125, 0.000, -0.250, 0.000, 0.125, 0.125, 0.125, -0.250, -0.125, 0.125, 0.250, 0.000, 0.125, 0.125, -0.250, 0.375, -0.250, 0.125, -0.125, -0.125, -0.500, 0.000, -0.125, -0.125, 0.375, 0.250, 0.750, 0.000, 0.375, -0.250, -0.125, 0.125, 0.250, 0.375, 0.000, 0.125, -0.125, 0.000, 0.000, 0.250, 0.125, -0.125, -0.250, 0.125, 0.000, -0.125, 0.000, 0.000, -0.125, 0.125, 0.125, 0.250, -0.125, 0.125, -0.125, -0.250, 0.375, -0.375, 0.000, -0.125, 0.000, -0.125, 0.000, 0.125, 0.125, 0.000, -0.125, 0.250, -0.125, -0.125, -0.250, 0.125, 0.250, 0.000, -0.125, 0.000, -0.125, 0.000, 0.250, -0.250, -0.250, -0.125, 0.125, -0.125, -0.125, -0.125, 0.250, -0.125, 0.000, 0.125, -0.125, -0.125, 0.125, 0.000, 0.250, -0.125, -0.375, 0.000, -0.375, -0.125, 0.000, 0.125, -0.125, -0.125, 0.250, 0.125, 0.000, 0.125, 0.125, 0.125, 0.000, 0.250, 0.250, -0.250, 0.250, 0.125, 0.250, 0.250, 0.000, 0.125, 0.000, 0.000, 0.125, -0.125, 0.000, 0.000, -0.125, 0.250, -0.125, 0.000, 0.250, -0.125, 0.000, 0.000, -0.125, 0.000, 0.000, 0.000, 0.000, 0.000, -0.250, -0.125, 0.000, -0.125, 0.250, 0.125, 0.250, 0.000, -0.125, 0.125, 0.125, 0.000, -0.250, 0.250, -0.125, -0.125, -0.250, -0.125, 0.000, -0.125, -0.125, 0.000, 0.125, 0.000, 0.000, -0.375, 0.250, -0.125, -0.125, 0.000, -0.250, -0.250, 0.000, 0.000, 0.000, -0.250, 0.125, 0.125, 0.250, 0.000, 0.375, 0.000, 0.125, -0.125, 0.250, 0.000, 0.000, 0.125, 0.250, 0.375, 0.250, 0.000, 0.125, 0.250, 0.125, 0.000, -0.250, 0.125, -0.125, -0.125, -0.250, 0.250, 0.000, -0.125, -0.125, 0.125, 0.375, 0.125, 0.250, 0.250, -0.125, -0.125, 0.125, -0.250, 0.125, -0.250, 0.125, -0.250, -0.125, 0.000, 0.000, 0.125, 0.250, 0.250, -0.250, 0.125, 0.000, -0.125, 0.250, 0.125, -0.125, 0.375, -0.125, 0.125, -0.125, 0.000, -0.250, 0.000, 0.250, 0.000, 0.000, 0.000, 0.125, 0.000, -0.125, -0.375, 0.250, 0.250, 0.000, -0.125, -0.250, 0.125, -0.250, 0.375, 0.250, 0.250, -0.250, -0.125, -0.125, 0.250, 0.125, -0.125, -0.125, 0.000, -0.250, -0.250, 0.125, -0.250, 0.125, -0.125, -0.125, -0.375, -0.250, -0.250, 0.250, 0.250, -0.125, 0.000, 0.000, 0.000, -0.250, 0.125, 0.125, 0.250, 0.125, 0.125, -0.375, 0.250, 0.125, -0.250, 0.125, 0.125, -0.375, -0.125, 0.125, 0.000, -0.250, 0.125, -0.125, 0.000, -0.125, -0.125, -0.125, -0.125, -0.125, 0.125, -0.125, 0.125, -0.375, -0.125, 0.000, 0.000, 0.000, 0.250, 0.250, -0.250, 0.000, -0.125, 0.250, 0.125, 0.125, 0.125, 0.000, -0.125, 0.125, -0.125, 0.000, 0.125, 0.125, 0.125, -0.250, 0.125, 0.125, -0.125, 0.000, -0.125, -0.125, 0.000, 0.125, -0.125, -0.125, -0.125, 0.250, -0.375, -0.125, 0.125, 0.000, 0.125, -0.125, 0.000, 0.000, 0.000, 0.250, -0.250, 0.000, 0.000, 0.000, -0.125, 0.000, 0.125, -0.250, 0.000, 0.125, 0.375, 0.000, 0.000, 0.000, -0.125, -0.250, 0.125, 0.125, 0.000, 0.000, -0.250, 0.125, 0.000, 0.000, 0.125, -0.125, 0.000, -0.125, -0.375, -0.250, -0.125, -0.125, 0.250, -0.125, 0.000, 0.125, 0.000, 0.125, -0.125, 0.125, -0.125, -0.250, -0.125, 0.375, -0.125, 0.000, -0.250, -0.250, -0.125, -0.250, 0.125, 0.000, 0.000, 0.125, 0.125, -0.125, 0.125, -0.375, 0.125, 0.125, 0.125, -0.250, -0.250, -0.125, 0.000, -0.250, 0.000, 0.125, 0.250, 0.125, -0.375, 0.250, 0.125, 0.375, -0.125, 0.125, 0.125, -0.125, 0.125, 0.000, -0.125, -0.250, 0.250, -0.250, 0.125, -0.125, -0.125, -0.125, 0.000, -0.250, 0.125, 0.000, 0.125, -0.125, 0.125, 0.000, 0.000, 0.125, -0.250, -0.250, 0.125, 0.125, 0.000, -0.125, -0.125, 0.125, 0.125, 0.000, 0.125, -0.125, -0.125, 0.250, 0.000, 0.250, 0.000, -0.125, 0.000, 0.125, -0.375, 0.125, 0.000, -0.125, -0.250, 0.125, 0.125, -0.125, 0.000, 0.125, 0.250, 0.000, 0.000, 0.125, 0.250, -0.125, -0.125, 0.125, 0.125, 0.125, 0.000, 0.000, -0.125, -0.125, 0.000, -0.125, -0.125, 0.125, -0.250, 0.000, 0.125, 0.250, 0.125, 0.125, -0.250, -0.125, 0.250, 0.250, 0.125, 0.000, -0.125, -0.250, 0.000, 0.000, 0.250, -0.125, 0.125, 0.375, 0.375, 0.000, -0.250, -0.125, -0.250, 0.125, 0.125, -0.125, -0.125, 0.125, -0.250, 0.000, -0.250, 0.250, -0.375, 0.250, 0.000, 0.000, 0.000, -0.250, 0.125, 0.125, 0.125, 0.000, 0.125, 0.000, 0.125, 0.000, -0.375, 0.250, 0.000, -0.125, 0.125, 0.250, 0.125, -0.125, 0.375, 0.125, 0.000, 0.125, -0.125, -0.250, -0.125, 0.125, 0.125, 0.000, 0.000, 0.250, 0.000, 0.125, -0.125, 0.000, -0.125, 0.000, -0.125, -0.250, -0.250, -0.250, 0.000, 0.250, 0.000, -0.250, 0.125, -0.250, -0.125, 0.000, 0.000, -0.125, 0.000, 0.000, 0.250, -0.250};
#endif

#endif
