//Numpy array shape [35, 8]
//Min -1.000000000000
//Max 0.875000000000
//Number of zeros 38

#ifndef W9_H_
#define W9_H_

#ifndef __SYNTHESIS__
weight9_t w9[280];
#else
weight9_t w9[280] = {-0.250, 0.000, 0.000, 0.125, -0.125, 0.625, 0.000, 0.250, 0.000, 0.500, 0.125, 0.000, -0.375, 0.250, 0.250, 0.000, 0.000, 0.125, 0.125, 0.375, -0.625, 0.250, 0.250, 0.375, 0.125, -0.125, 0.125, -0.375, -0.750, 0.000, -0.250, 0.375, -0.125, -0.375, 0.125, -0.125, -1.000, 0.500, 0.000, 0.250, -0.500, -0.875, 0.625, 0.125, -1.000, 0.875, -0.125, 0.875, 0.125, -0.625, 0.750, 0.500, -1.000, 0.875, -0.125, 0.875, -0.125, 0.750, 0.500, 0.250, -0.375, 0.375, -0.125, 0.875, -0.500, 0.875, 0.375, -0.375, 0.000, 0.125, 0.000, 0.500, -0.125, 0.250, 0.500, -0.125, 0.000, 0.000, -0.125, -0.750, -0.250, -0.875, 0.500, 0.000, 0.000, 0.375, -0.625, -0.875, -0.250, 0.250, 0.500, 0.125, 0.000, 0.000, 0.125, -0.750, 0.000, 0.875, 0.500, -0.375, 0.000, 0.125, -0.250, 0.500, 0.375, 0.625, -0.375, -0.500, -0.250, 0.500, 0.125, 0.875, 0.375, -0.500, 0.875, -0.125, -1.000, 0.875, 0.000, 0.875, -0.625, -0.750, 0.875, 0.125, -1.000, 0.875, 0.250, 0.875, 0.125, -0.750, 0.250, 0.250, -1.000, 0.750, 0.000, 0.750, -0.500, -0.250, 0.250, 0.000, -0.625, 0.000, 0.125, 0.125, 0.375, 0.125, 0.125, 0.125, -0.500, 0.375, -0.125, 0.250, -0.250, -0.125, -0.125, -0.250, -0.500, 0.000, -0.500, 0.000, 0.125, -0.125, 0.000, 0.000, -0.500, -0.125, 0.250, 0.000, -0.125, 0.000, 0.125, 0.250, -0.250, -0.125, 0.000, 0.750, 0.250, -0.250, 0.125, 0.000, -0.125, 0.375, -0.125, 0.875, -0.500, -0.625, 0.000, -0.250, -0.125, 0.500, -0.250, 0.875, 0.375, -1.000, 0.250, 0.250, -1.000, 0.250, -0.250, 0.875, -0.500, -1.000, 0.500, -0.375, -1.000, 0.875, -0.125, 0.875, -0.125, 0.250, 0.875, -0.500, -0.125, -0.375, -0.125, 0.250, -0.250, 0.125, -0.625, -0.250, 0.500, -0.250, -0.125, -0.125, 0.000, 0.375, -0.500, 0.000, -0.125, 0.875, -0.375, 0.375, 0.125, -1.000, 0.875, -0.375, -1.000, -0.125, -0.125, 0.875, -0.125, -0.875, 0.500, 0.000, -1.000, 0.125, 0.250, 0.875, -0.375, -0.500, 0.125, -0.125, 0.000, 0.125, 0.000, 0.875, 0.125, -0.125, 0.125, -0.125, -0.125, -0.125, -0.250, 0.500, -0.125, -0.125, -0.125, -0.375, 0.125, 0.000, -0.250, 0.625, -0.250, -1.000, -1.000, 0.250, 0.875, -0.625, 0.375, -1.000};
#endif

#endif
